digraph Tree {
0 [label="X[7] <= 0.2500\ngini = 0.258546394714\nsamples = 590", shape="box"] ;
1 [label="X[8] <= 0.7500\ngini = 0.144643486621\nsamples = 395", shape="box"] ;
0 -> 1 ;
2 [label="X[0] <= 0.5000\ngini = 0.101488546601\nsamples = 373", shape="box"] ;
1 -> 2 ;
3 [label="X[7] <= -0.0500\ngini = 0.0614764424288\nsamples = 189", shape="box"] ;
2 -> 3 ;
4 [label="X[9] <= 0.9000\ngini = 0.18\nsamples = 20", shape="box"] ;
3 -> 4 ;
5 [label="gini = 0.0000\nsamples = 9\nvalue = [ 9.  0.]", shape="box"] ;
4 -> 5 ;
6 [label="X[6] <= 0.5000\ngini = 0.297520661157\nsamples = 11", shape="box"] ;
4 -> 6 ;
7 [label="X[8] <= 0.3000\ngini = 0.48\nsamples = 5", shape="box"] ;
6 -> 7 ;
8 [label="gini = 0.0000\nsamples = 1\nvalue = [ 1.  0.]", shape="box"] ;
7 -> 8 ;
9 [label="X[1] <= 0.5000\ngini = 0.5\nsamples = 4", shape="box"] ;
7 -> 9 ;
10 [label="X[3] <= 0.7500\ngini = 0.444444444444\nsamples = 3", shape="box"] ;
9 -> 10 ;
11 [label="gini = 0.5000\nsamples = 2\nvalue = [ 1.  1.]", shape="box"] ;
10 -> 11 ;
12 [label="gini = 0.0000\nsamples = 1\nvalue = [ 0.  1.]", shape="box"] ;
10 -> 12 ;
13 [label="gini = 0.0000\nsamples = 1\nvalue = [ 1.  0.]", shape="box"] ;
9 -> 13 ;
14 [label="gini = 0.0000\nsamples = 6\nvalue = [ 6.  0.]", shape="box"] ;
6 -> 14 ;
15 [label="X[6] <= 0.5000\ngini = 0.0462168691572\nsamples = 169", shape="box"] ;
3 -> 15 ;
16 [label="X[9] <= 0.5000\ngini = 0.0291906721536\nsamples = 135", shape="box"] ;
15 -> 16 ;
17 [label="gini = 0.0000\nsamples = 24\nvalue = [ 24.   0.]", shape="box"] ;
16 -> 17 ;
18 [label="X[9] <= 0.7000\ngini = 0.0353867380894\nsamples = 111", shape="box"] ;
16 -> 18 ;
19 [label="X[3] <= 0.7500\ngini = 0.0798611111111\nsamples = 24", shape="box"] ;
18 -> 19 ;
20 [label="X[8] <= 0.3000\ngini = 0.165289256198\nsamples = 11", shape="box"] ;
19 -> 20 ;
21 [label="gini = 0.0000\nsamples = 2\nvalue = [ 2.  0.]", shape="box"] ;
20 -> 21 ;
22 [label="gini = 0.1975\nsamples = 9\nvalue = [ 8.  1.]", shape="box"] ;
20 -> 22 ;
23 [label="gini = 0.0000\nsamples = 13\nvalue = [ 13.   0.]", shape="box"] ;
19 -> 23 ;
24 [label="X[3] <= 0.7500\ngini = 0.0227242700489\nsamples = 87", shape="box"] ;
18 -> 24 ;
25 [label="gini = 0.0000\nsamples = 31\nvalue = [ 31.   0.]", shape="box"] ;
24 -> 25 ;
26 [label="X[9] <= 0.9000\ngini = 0.0350765306122\nsamples = 56", shape="box"] ;
24 -> 26 ;
27 [label="gini = 0.0000\nsamples = 20\nvalue = [ 20.   0.]", shape="box"] ;
26 -> 27 ;
28 [label="X[1] <= 0.5000\ngini = 0.054012345679\nsamples = 36", shape="box"] ;
26 -> 28 ;
29 [label="X[2] <= 0.5000\ngini = 0.058769513315\nsamples = 33", shape="box"] ;
28 -> 29 ;
30 [label="X[8] <= 0.3000\ngini = 0.0624349635796\nsamples = 31", shape="box"] ;
29 -> 30 ;
31 [label="gini = 0.0000\nsamples = 1\nvalue = [ 1.  0.]", shape="box"] ;
30 -> 31 ;
32 [label="gini = 0.0644\nsamples = 30\nvalue = [ 29.   1.]", shape="box"] ;
30 -> 32 ;
33 [label="gini = 0.0000\nsamples = 2\nvalue = [ 2.  0.]", shape="box"] ;
29 -> 33 ;
34 [label="gini = 0.0000\nsamples = 3\nvalue = [ 3.  0.]", shape="box"] ;
28 -> 34 ;
35 [label="X[3] <= 0.7500\ngini = 0.110726643599\nsamples = 34", shape="box"] ;
15 -> 35 ;
36 [label="gini = 0.0000\nsamples = 11\nvalue = [ 11.   0.]", shape="box"] ;
35 -> 36 ;
37 [label="X[8] <= 0.3000\ngini = 0.158790170132\nsamples = 23", shape="box"] ;
35 -> 37 ;
38 [label="gini = 0.0000\nsamples = 4\nvalue = [ 4.  0.]", shape="box"] ;
37 -> 38 ;
39 [label="X[9] <= 0.3500\ngini = 0.18836565097\nsamples = 19", shape="box"] ;
37 -> 39 ;
40 [label="gini = 0.0000\nsamples = 2\nvalue = [ 2.  0.]", shape="box"] ;
39 -> 40 ;
41 [label="X[9] <= 0.9000\ngini = 0.207612456747\nsamples = 17", shape="box"] ;
39 -> 41 ;
42 [label="gini = 0.2778\nsamples = 6\nvalue = [ 5.  1.]", shape="box"] ;
41 -> 42 ;
43 [label="X[2] <= 0.5000\ngini = 0.165289256198\nsamples = 11", shape="box"] ;
41 -> 43 ;
44 [label="gini = 0.1800\nsamples = 10\nvalue = [ 9.  1.]", shape="box"] ;
43 -> 44 ;
45 [label="gini = 0.0000\nsamples = 1\nvalue = [ 1.  0.]", shape="box"] ;
43 -> 45 ;
46 [label="X[9] <= 0.7000\ngini = 0.140595463138\nsamples = 184", shape="box"] ;
2 -> 46 ;
47 [label="X[3] <= 0.7500\ngini = 0.0820408163265\nsamples = 70", shape="box"] ;
46 -> 47 ;
48 [label="gini = 0.0000\nsamples = 27\nvalue = [ 27.   0.]", shape="box"] ;
47 -> 48 ;
49 [label="X[6] <= 0.5000\ngini = 0.129799891833\nsamples = 43", shape="box"] ;
47 -> 49 ;
50 [label="X[9] <= 0.5000\ngini = 0.0973044049967\nsamples = 39", shape="box"] ;
49 -> 50 ;
51 [label="X[9] <= 0.3000\ngini = 0.1472\nsamples = 25", shape="box"] ;
50 -> 51 ;
52 [label="gini = 0.0000\nsamples = 6\nvalue = [ 6.  0.]", shape="box"] ;
51 -> 52 ;
53 [label="X[7] <= -0.0500\ngini = 0.18836565097\nsamples = 19", shape="box"] ;
51 -> 53 ;
54 [label="gini = 0.0000\nsamples = 4\nvalue = [ 4.  0.]", shape="box"] ;
53 -> 54 ;
55 [label="X[1] <= 0.5000\ngini = 0.231111111111\nsamples = 15", shape="box"] ;
53 -> 55 ;
56 [label="gini = 0.2449\nsamples = 14\nvalue = [ 12.   2.]", shape="box"] ;
55 -> 56 ;
57 [label="gini = 0.0000\nsamples = 1\nvalue = [ 1.  0.]", shape="box"] ;
55 -> 57 ;
58 [label="gini = 0.0000\nsamples = 14\nvalue = [ 14.   0.]", shape="box"] ;
50 -> 58 ;
59 [label="X[7] <= -0.0500\ngini = 0.375\nsamples = 4", shape="box"] ;
49 -> 59 ;
60 [label="gini = 0.0000\nsamples = 1\nvalue = [ 0.  1.]", shape="box"] ;
59 -> 60 ;
61 [label="gini = 0.0000\nsamples = 3\nvalue = [ 3.  0.]", shape="box"] ;
59 -> 61 ;
62 [label="X[1] <= 0.5000\ngini = 0.174361341951\nsamples = 114", shape="box"] ;
46 -> 62 ;
63 [label="X[6] <= 0.5000\ngini = 0.163947731515\nsamples = 111", shape="box"] ;
62 -> 63 ;
64 [label="X[3] <= 0.2500\ngini = 0.195419393218\nsamples = 82", shape="box"] ;
63 -> 64 ;
65 [label="X[9] <= 0.9000\ngini = 0.444444444444\nsamples = 3", shape="box"] ;
64 -> 65 ;
66 [label="gini = 0.0000\nsamples = 1\nvalue = [ 1.  0.]", shape="box"] ;
65 -> 66 ;
67 [label="gini = 0.5000\nsamples = 2\nvalue = [ 1.  1.]", shape="box"] ;
65 -> 67 ;
68 [label="X[7] <= -0.0500\ngini = 0.182022111841\nsamples = 79", shape="box"] ;
64 -> 68 ;
69 [label="gini = 0.0000\nsamples = 8\nvalue = [ 8.  0.]", shape="box"] ;
68 -> 69 ;
70 [label="X[8] <= 0.3000\ngini = 0.199960325332\nsamples = 71", shape="box"] ;
68 -> 70 ;
71 [label="gini = 0.0000\nsamples = 7\nvalue = [ 7.  0.]", shape="box"] ;
70 -> 71 ;
72 [label="X[3] <= 0.7500\ngini = 0.21875\nsamples = 64", shape="box"] ;
70 -> 72 ;
73 [label="X[9] <= 0.9000\ngini = 0.308390022676\nsamples = 21", shape="box"] ;
72 -> 73 ;
74 [label="gini = 0.0000\nsamples = 5\nvalue = [ 5.  0.]", shape="box"] ;
73 -> 74 ;
75 [label="X[2] <= 0.5000\ngini = 0.375\nsamples = 16", shape="box"] ;
73 -> 75 ;
76 [label="gini = 0.3911\nsamples = 15\nvalue = [ 11.   4.]", shape="box"] ;
75 -> 76 ;
77 [label="gini = 0.0000\nsamples = 1\nvalue = [ 1.  0.]", shape="box"] ;
75 -> 77 ;
78 [label="X[9] <= 0.9000\ngini = 0.168739859383\nsamples = 43", shape="box"] ;
72 -> 78 ;
79 [label="gini = 0.2778\nsamples = 12\nvalue = [ 10.   2.]", shape="box"] ;
78 -> 79 ;
80 [label="X[4] <= 0.5000\ngini = 0.120707596254\nsamples = 31", shape="box"] ;
78 -> 80 ;
81 [label="gini = 0.1284\nsamples = 29\nvalue = [ 27.   2.]", shape="box"] ;
80 -> 81 ;
82 [label="gini = 0.0000\nsamples = 2\nvalue = [ 2.  0.]", shape="box"] ;
80 -> 82 ;
83 [label="X[9] <= 0.9000\ngini = 0.0665873959572\nsamples = 29", shape="box"] ;
63 -> 83 ;
84 [label="gini = 0.0000\nsamples = 12\nvalue = [ 12.   0.]", shape="box"] ;
83 -> 84 ;
85 [label="X[3] <= 0.7500\ngini = 0.110726643599\nsamples = 17", shape="box"] ;
83 -> 85 ;
86 [label="gini = 0.0000\nsamples = 7\nvalue = [ 7.  0.]", shape="box"] ;
85 -> 86 ;
87 [label="X[2] <= 0.5000\ngini = 0.18\nsamples = 10", shape="box"] ;
85 -> 87 ;
88 [label="gini = 0.1975\nsamples = 9\nvalue = [ 8.  1.]", shape="box"] ;
87 -> 88 ;
89 [label="gini = 0.0000\nsamples = 1\nvalue = [ 1.  0.]", shape="box"] ;
87 -> 89 ;
90 [label="X[3] <= 0.7500\ngini = 0.444444444444\nsamples = 3", shape="box"] ;
62 -> 90 ;
91 [label="gini = 0.0000\nsamples = 1\nvalue = [ 1.  0.]", shape="box"] ;
90 -> 91 ;
92 [label="X[9] <= 0.9000\ngini = 0.5\nsamples = 2", shape="box"] ;
90 -> 92 ;
93 [label="gini = 0.0000\nsamples = 1\nvalue = [ 0.  1.]", shape="box"] ;
92 -> 93 ;
94 [label="gini = 0.0000\nsamples = 1\nvalue = [ 1.  0.]", shape="box"] ;
92 -> 94 ;
95 [label="X[6] <= 0.5000\ngini = 0.5\nsamples = 22", shape="box"] ;
1 -> 95 ;
96 [label="X[1] <= 0.5000\ngini = 0.475308641975\nsamples = 18", shape="box"] ;
95 -> 96 ;
97 [label="X[9] <= 0.5000\ngini = 0.497777777778\nsamples = 15", shape="box"] ;
96 -> 97 ;
98 [label="gini = 0.0000\nsamples = 1\nvalue = [ 1.  0.]", shape="box"] ;
97 -> 98 ;
99 [label="X[3] <= 0.2500\ngini = 0.489795918367\nsamples = 14", shape="box"] ;
97 -> 99 ;
100 [label="gini = 0.0000\nsamples = 1\nvalue = [ 1.  0.]", shape="box"] ;
99 -> 100 ;
101 [label="X[9] <= 0.7000\ngini = 0.473372781065\nsamples = 13", shape="box"] ;
99 -> 101 ;
102 [label="gini = 0.0000\nsamples = 1\nvalue = [ 0.  1.]", shape="box"] ;
101 -> 102 ;
103 [label="X[2] <= 0.5000\ngini = 0.486111111111\nsamples = 12", shape="box"] ;
101 -> 103 ;
104 [label="X[9] <= 0.9000\ngini = 0.495867768595\nsamples = 11", shape="box"] ;
103 -> 104 ;
105 [label="gini = 0.4444\nsamples = 3\nvalue = [ 1.  2.]", shape="box"] ;
104 -> 105 ;
106 [label="X[3] <= 0.7500\ngini = 0.5\nsamples = 8", shape="box"] ;
104 -> 106 ;
107 [label="X[0] <= 0.5000\ngini = 0.444444444444\nsamples = 3", shape="box"] ;
106 -> 107 ;
108 [label="gini = 0.5000\nsamples = 2\nvalue = [ 1.  1.]", shape="box"] ;
107 -> 108 ;
109 [label="gini = 0.0000\nsamples = 1\nvalue = [ 0.  1.]", shape="box"] ;
107 -> 109 ;
110 [label="X[0] <= 0.5000\ngini = 0.48\nsamples = 5", shape="box"] ;
106 -> 110 ;
111 [label="gini = 0.5000\nsamples = 2\nvalue = [ 1.  1.]", shape="box"] ;
110 -> 111 ;
112 [label="gini = 0.4444\nsamples = 3\nvalue = [ 2.  1.]", shape="box"] ;
110 -> 112 ;
113 [label="gini = 0.0000\nsamples = 1\nvalue = [ 0.  1.]", shape="box"] ;
103 -> 113 ;
114 [label="gini = 0.0000\nsamples = 3\nvalue = [ 0.  3.]", shape="box"] ;
96 -> 114 ;
115 [label="gini = 0.0000\nsamples = 4\nvalue = [ 4.  0.]", shape="box"] ;
95 -> 115 ;
116 [label="X[9] <= 0.9000\ngini = 0.422038132807\nsamples = 195", shape="box"] ;
0 -> 116 ;
117 [label="X[0] <= 0.5000\ngini = 0.38677764566\nsamples = 145", shape="box"] ;
116 -> 117 ;
118 [label="X[6] <= 0.5000\ngini = 0.309256055363\nsamples = 68", shape="box"] ;
117 -> 118 ;
119 [label="X[9] <= 0.5000\ngini = 0.345679012346\nsamples = 54", shape="box"] ;
118 -> 119 ;
120 [label="X[9] <= -0.0500\ngini = 0.48\nsamples = 10", shape="box"] ;
119 -> 120 ;
121 [label="gini = 0.0000\nsamples = 4\nvalue = [ 4.  0.]", shape="box"] ;
120 -> 121 ;
122 [label="X[9] <= 0.2000\ngini = 0.444444444444\nsamples = 6", shape="box"] ;
120 -> 122 ;
123 [label="gini = 0.5000\nsamples = 2\nvalue = [ 1.  1.]", shape="box"] ;
122 -> 123 ;
124 [label="X[3] <= 0.7500\ngini = 0.375\nsamples = 4", shape="box"] ;
122 -> 124 ;
125 [label="gini = 0.5000\nsamples = 2\nvalue = [ 1.  1.]", shape="box"] ;
124 -> 125 ;
126 [label="gini = 0.0000\nsamples = 2\nvalue = [ 0.  2.]", shape="box"] ;
124 -> 126 ;
127 [label="X[8] <= 0.7500\ngini = 0.297520661157\nsamples = 44", shape="box"] ;
119 -> 127 ;
128 [label="X[7] <= 0.7500\ngini = 0.314098750744\nsamples = 41", shape="box"] ;
127 -> 128 ;
129 [label="X[9] <= 0.7000\ngini = 0.277777777778\nsamples = 24", shape="box"] ;
128 -> 129 ;
130 [label="X[3] <= 0.7500\ngini = 0.165289256198\nsamples = 11", shape="box"] ;
129 -> 130 ;
131 [label="gini = 0.0000\nsamples = 2\nvalue = [ 2.  0.]", shape="box"] ;
130 -> 131 ;
132 [label="X[1] <= 0.5000\ngini = 0.197530864198\nsamples = 9", shape="box"] ;
130 -> 132 ;
133 [label="gini = 0.2188\nsamples = 8\nvalue = [ 7.  1.]", shape="box"] ;
132 -> 133 ;
134 [label="gini = 0.0000\nsamples = 1\nvalue = [ 1.  0.]", shape="box"] ;
132 -> 134 ;
135 [label="X[3] <= 0.7500\ngini = 0.355029585799\nsamples = 13", shape="box"] ;
129 -> 135 ;
136 [label="gini = 0.3200\nsamples = 5\nvalue = [ 4.  1.]", shape="box"] ;
135 -> 136 ;
137 [label="gini = 0.3750\nsamples = 8\nvalue = [ 6.  2.]", shape="box"] ;
135 -> 137 ;
138 [label="X[3] <= 0.7500\ngini = 0.359861591696\nsamples = 17", shape="box"] ;
128 -> 138 ;
139 [label="X[3] <= 0.2500\ngini = 0.42\nsamples = 10", shape="box"] ;
138 -> 139 ;
140 [label="gini = 0.0000\nsamples = 1\nvalue = [ 1.  0.]", shape="box"] ;
139 -> 140 ;
141 [label="X[9] <= 0.7000\ngini = 0.444444444444\nsamples = 9", shape="box"] ;
139 -> 141 ;
142 [label="gini = 0.4444\nsamples = 6\nvalue = [ 4.  2.]", shape="box"] ;
141 -> 142 ;
143 [label="gini = 0.4444\nsamples = 3\nvalue = [ 2.  1.]", shape="box"] ;
141 -> 143 ;
144 [label="X[9] <= 0.7000\ngini = 0.244897959184\nsamples = 7", shape="box"] ;
138 -> 144 ;
145 [label="gini = 0.3750\nsamples = 4\nvalue = [ 3.  1.]", shape="box"] ;
144 -> 145 ;
146 [label="gini = 0.0000\nsamples = 3\nvalue = [ 3.  0.]", shape="box"] ;
144 -> 146 ;
147 [label="gini = 0.0000\nsamples = 3\nvalue = [ 3.  0.]", shape="box"] ;
127 -> 147 ;
148 [label="X[7] <= 0.7500\ngini = 0.132653061224\nsamples = 14", shape="box"] ;
118 -> 148 ;
149 [label="gini = 0.0000\nsamples = 9\nvalue = [ 9.  0.]", shape="box"] ;
148 -> 149 ;
150 [label="X[3] <= 0.7500\ngini = 0.32\nsamples = 5", shape="box"] ;
148 -> 150 ;
151 [label="X[9] <= 0.5000\ngini = 0.444444444444\nsamples = 3", shape="box"] ;
150 -> 151 ;
152 [label="gini = 0.0000\nsamples = 1\nvalue = [ 1.  0.]", shape="box"] ;
151 -> 152 ;
153 [label="gini = 0.5000\nsamples = 2\nvalue = [ 1.  1.]", shape="box"] ;
151 -> 153 ;
154 [label="gini = 0.0000\nsamples = 2\nvalue = [ 2.  0.]", shape="box"] ;
150 -> 154 ;
155 [label="X[8] <= 0.3000\ngini = 0.438522516445\nsamples = 77", shape="box"] ;
117 -> 155 ;
156 [label="gini = 0.0000\nsamples = 6\nvalue = [ 6.  0.]", shape="box"] ;
155 -> 156 ;
157 [label="X[6] <= 0.5000\ngini = 0.456258678834\nsamples = 71", shape="box"] ;
155 -> 157 ;
158 [label="X[5] <= 0.5000\ngini = 0.432777777778\nsamples = 60", shape="box"] ;
157 -> 158 ;
159 [label="X[8] <= 0.7500\ngini = 0.424016087331\nsamples = 59", shape="box"] ;
158 -> 159 ;
160 [label="X[9] <= 0.7000\ngini = 0.405838376646\nsamples = 53", shape="box"] ;
159 -> 160 ;
161 [label="X[7] <= 0.7500\ngini = 0.438276113952\nsamples = 37", shape="box"] ;
160 -> 161 ;
162 [label="X[9] <= 0.5000\ngini = 0.345679012346\nsamples = 18", shape="box"] ;
161 -> 162 ;
163 [label="X[9] <= 0.3000\ngini = 0.396694214876\nsamples = 11", shape="box"] ;
162 -> 163 ;
164 [label="X[9] <= -0.0500\ngini = 0.32\nsamples = 5", shape="box"] ;
163 -> 164 ;
165 [label="gini = 0.4444\nsamples = 3\nvalue = [ 2.  1.]", shape="box"] ;
164 -> 165 ;
166 [label="gini = 0.0000\nsamples = 2\nvalue = [ 2.  0.]", shape="box"] ;
164 -> 166 ;
167 [label="X[3] <= 0.7500\ngini = 0.444444444444\nsamples = 6", shape="box"] ;
163 -> 167 ;
168 [label="gini = 0.4444\nsamples = 3\nvalue = [ 2.  1.]", shape="box"] ;
167 -> 168 ;
169 [label="gini = 0.4444\nsamples = 3\nvalue = [ 2.  1.]", shape="box"] ;
167 -> 169 ;
170 [label="X[3] <= 0.7500\ngini = 0.244897959184\nsamples = 7", shape="box"] ;
162 -> 170 ;
171 [label="gini = 0.0000\nsamples = 3\nvalue = [ 3.  0.]", shape="box"] ;
170 -> 171 ;
172 [label="gini = 0.3750\nsamples = 4\nvalue = [ 3.  1.]", shape="box"] ;
170 -> 172 ;
173 [label="X[9] <= 0.1000\ngini = 0.487534626039\nsamples = 19", shape="box"] ;
161 -> 173 ;
174 [label="X[3] <= 0.7500\ngini = 0.5\nsamples = 6", shape="box"] ;
173 -> 174 ;
175 [label="gini = 0.0000\nsamples = 2\nvalue = [ 0.  2.]", shape="box"] ;
174 -> 175 ;
176 [label="X[9] <= -0.0500\ngini = 0.375\nsamples = 4", shape="box"] ;
174 -> 176 ;
177 [label="gini = 0.4444\nsamples = 3\nvalue = [ 2.  1.]", shape="box"] ;
176 -> 177 ;
178 [label="gini = 0.0000\nsamples = 1\nvalue = [ 1.  0.]", shape="box"] ;
176 -> 178 ;
179 [label="X[3] <= 0.7500\ngini = 0.473372781065\nsamples = 13", shape="box"] ;
173 -> 179 ;
180 [label="X[9] <= 0.5000\ngini = 0.32\nsamples = 5", shape="box"] ;
179 -> 180 ;
181 [label="X[9] <= 0.3000\ngini = 0.444444444444\nsamples = 3", shape="box"] ;
180 -> 181 ;
182 [label="gini = 0.0000\nsamples = 1\nvalue = [ 1.  0.]", shape="box"] ;
181 -> 182 ;
183 [label="gini = 0.5000\nsamples = 2\nvalue = [ 1.  1.]", shape="box"] ;
181 -> 183 ;
184 [label="gini = 0.0000\nsamples = 2\nvalue = [ 2.  0.]", shape="box"] ;
180 -> 184 ;
185 [label="gini = 0.5000\nsamples = 8\nvalue = [ 4.  4.]", shape="box"] ;
179 -> 185 ;
186 [label="X[7] <= 0.7500\ngini = 0.3046875\nsamples = 16", shape="box"] ;
160 -> 186 ;
187 [label="X[3] <= 0.7500\ngini = 0.375\nsamples = 12", shape="box"] ;
186 -> 187 ;
188 [label="gini = 0.3200\nsamples = 5\nvalue = [ 4.  1.]", shape="box"] ;
187 -> 188 ;
189 [label="gini = 0.4082\nsamples = 7\nvalue = [ 5.  2.]", shape="box"] ;
187 -> 189 ;
190 [label="gini = 0.0000\nsamples = 4\nvalue = [ 4.  0.]", shape="box"] ;
186 -> 190 ;
191 [label="X[3] <= 0.5000\ngini = 0.5\nsamples = 6", shape="box"] ;
159 -> 191 ;
192 [label="gini = 0.0000\nsamples = 1\nvalue = [ 1.  0.]", shape="box"] ;
191 -> 192 ;
193 [label="X[9] <= 0.1500\ngini = 0.48\nsamples = 5", shape="box"] ;
191 -> 193 ;
194 [label="gini = 0.0000\nsamples = 1\nvalue = [ 0.  1.]", shape="box"] ;
193 -> 194 ;
195 [label="X[9] <= 0.6000\ngini = 0.5\nsamples = 4", shape="box"] ;
193 -> 195 ;
196 [label="gini = 0.0000\nsamples = 1\nvalue = [ 1.  0.]", shape="box"] ;
195 -> 196 ;
197 [label="X[1] <= 0.5000\ngini = 0.444444444444\nsamples = 3", shape="box"] ;
195 -> 197 ;
198 [label="gini = 0.5000\nsamples = 2\nvalue = [ 1.  1.]", shape="box"] ;
197 -> 198 ;
199 [label="gini = 0.0000\nsamples = 1\nvalue = [ 0.  1.]", shape="box"] ;
197 -> 199 ;
200 [label="gini = 0.0000\nsamples = 1\nvalue = [ 0.  1.]", shape="box"] ;
158 -> 200 ;
201 [label="X[3] <= 0.7500\ngini = 0.495867768595\nsamples = 11", shape="box"] ;
157 -> 201 ;
202 [label="X[9] <= 0.5000\ngini = 0.48\nsamples = 5", shape="box"] ;
201 -> 202 ;
203 [label="gini = 0.0000\nsamples = 2\nvalue = [ 0.  2.]", shape="box"] ;
202 -> 203 ;
204 [label="X[9] <= 0.7000\ngini = 0.444444444444\nsamples = 3", shape="box"] ;
202 -> 204 ;
205 [label="gini = 0.0000\nsamples = 2\nvalue = [ 2.  0.]", shape="box"] ;
204 -> 205 ;
206 [label="gini = 0.0000\nsamples = 1\nvalue = [ 0.  1.]", shape="box"] ;
204 -> 206 ;
207 [label="X[9] <= 0.5000\ngini = 0.5\nsamples = 6", shape="box"] ;
201 -> 207 ;
208 [label="gini = 0.0000\nsamples = 2\nvalue = [ 2.  0.]", shape="box"] ;
207 -> 208 ;
209 [label="X[9] <= 0.7000\ngini = 0.375\nsamples = 4", shape="box"] ;
207 -> 209 ;
210 [label="gini = 0.0000\nsamples = 3\nvalue = [ 0.  3.]", shape="box"] ;
209 -> 210 ;
211 [label="gini = 0.0000\nsamples = 1\nvalue = [ 1.  0.]", shape="box"] ;
209 -> 211 ;
212 [label="X[6] <= 0.5000\ngini = 0.4872\nsamples = 50", shape="box"] ;
116 -> 212 ;
213 [label="X[3] <= 0.7500\ngini = 0.464009518144\nsamples = 41", shape="box"] ;
212 -> 213 ;
214 [label="X[8] <= 0.3000\ngini = 0.497777777778\nsamples = 15", shape="box"] ;
213 -> 214 ;
215 [label="gini = 0.0000\nsamples = 1\nvalue = [ 1.  0.]", shape="box"] ;
214 -> 215 ;
216 [label="X[4] <= 0.5000\ngini = 0.489795918367\nsamples = 14", shape="box"] ;
214 -> 216 ;
217 [label="X[3] <= 0.2500\ngini = 0.473372781065\nsamples = 13", shape="box"] ;
216 -> 217 ;
218 [label="gini = 0.0000\nsamples = 1\nvalue = [ 1.  0.]", shape="box"] ;
217 -> 218 ;
219 [label="X[8] <= 0.7500\ngini = 0.444444444444\nsamples = 12", shape="box"] ;
217 -> 219 ;
220 [label="X[1] <= 0.5000\ngini = 0.462809917355\nsamples = 11", shape="box"] ;
219 -> 220 ;
221 [label="X[0] <= 0.5000\ngini = 0.48\nsamples = 10", shape="box"] ;
220 -> 221 ;
222 [label="X[7] <= 0.7500\ngini = 0.444444444444\nsamples = 6", shape="box"] ;
221 -> 222 ;
223 [label="gini = 0.4800\nsamples = 5\nvalue = [ 2.  3.]", shape="box"] ;
222 -> 223 ;
224 [label="gini = 0.0000\nsamples = 1\nvalue = [ 0.  1.]", shape="box"] ;
222 -> 224 ;
225 [label="X[7] <= 0.7500\ngini = 0.5\nsamples = 4", shape="box"] ;
221 -> 225 ;
226 [label="gini = 0.5000\nsamples = 2\nvalue = [ 1.  1.]", shape="box"] ;
225 -> 226 ;
227 [label="gini = 0.5000\nsamples = 2\nvalue = [ 1.  1.]", shape="box"] ;
225 -> 227 ;
228 [label="gini = 0.0000\nsamples = 1\nvalue = [ 0.  1.]", shape="box"] ;
220 -> 228 ;
229 [label="gini = 0.0000\nsamples = 1\nvalue = [ 0.  1.]", shape="box"] ;
219 -> 229 ;
230 [label="gini = 0.0000\nsamples = 1\nvalue = [ 1.  0.]", shape="box"] ;
216 -> 230 ;
231 [label="X[7] <= 0.7500\ngini = 0.39349112426\nsamples = 26", shape="box"] ;
213 -> 231 ;
232 [label="X[8] <= 0.7500\ngini = 0.277777777778\nsamples = 12", shape="box"] ;
231 -> 232 ;
233 [label="X[0] <= 0.5000\ngini = 0.297520661157\nsamples = 11", shape="box"] ;
232 -> 233 ;
234 [label="gini = 0.3200\nsamples = 5\nvalue = [ 4.  1.]", shape="box"] ;
233 -> 234 ;
235 [label="gini = 0.2778\nsamples = 6\nvalue = [ 5.  1.]", shape="box"] ;
233 -> 235 ;
236 [label="gini = 0.0000\nsamples = 1\nvalue = [ 1.  0.]", shape="box"] ;
232 -> 236 ;
237 [label="X[4] <= 0.5000\ngini = 0.459183673469\nsamples = 14", shape="box"] ;
231 -> 237 ;
238 [label="X[8] <= 0.7500\ngini = 0.486111111111\nsamples = 12", shape="box"] ;
237 -> 238 ;
239 [label="X[0] <= 0.5000\ngini = 0.462809917355\nsamples = 11", shape="box"] ;
238 -> 239 ;
240 [label="gini = 0.4800\nsamples = 5\nvalue = [ 3.  2.]", shape="box"] ;
239 -> 240 ;
241 [label="gini = 0.4444\nsamples = 6\nvalue = [ 4.  2.]", shape="box"] ;
239 -> 241 ;
242 [label="gini = 0.0000\nsamples = 1\nvalue = [ 0.  1.]", shape="box"] ;
238 -> 242 ;
243 [label="gini = 0.0000\nsamples = 2\nvalue = [ 2.  0.]", shape="box"] ;
237 -> 243 ;
244 [label="X[8] <= 0.7500\ngini = 0.444444444444\nsamples = 9", shape="box"] ;
212 -> 244 ;
245 [label="X[0] <= 0.5000\ngini = 0.489795918367\nsamples = 7", shape="box"] ;
244 -> 245 ;
246 [label="gini = 0.0000\nsamples = 1\nvalue = [ 0.  1.]", shape="box"] ;
245 -> 246 ;
247 [label="X[7] <= 0.7500\ngini = 0.5\nsamples = 6", shape="box"] ;
245 -> 247 ;
248 [label="X[3] <= 0.7500\ngini = 0.5\nsamples = 4", shape="box"] ;
247 -> 248 ;
249 [label="gini = 0.0000\nsamples = 1\nvalue = [ 0.  1.]", shape="box"] ;
248 -> 249 ;
250 [label="gini = 0.4444\nsamples = 3\nvalue = [ 2.  1.]", shape="box"] ;
248 -> 250 ;
251 [label="X[3] <= 0.7500\ngini = 0.5\nsamples = 2", shape="box"] ;
247 -> 251 ;
252 [label="gini = 0.0000\nsamples = 1\nvalue = [ 1.  0.]", shape="box"] ;
251 -> 252 ;
253 [label="gini = 0.0000\nsamples = 1\nvalue = [ 0.  1.]", shape="box"] ;
251 -> 253 ;
254 [label="gini = 0.0000\nsamples = 2\nvalue = [ 0.  2.]", shape="box"] ;
244 -> 254 ;
}